{
  "0_1": {
    "w": [
      -0.32101999603975867,
      -0.11256476673343227,
      -0.30391730485129975,
      -0.3098566605006477,
      -0.20988073932553156,
      0.03320570272709937
    ],
    "b": -0.2840000000000002
  },
  "0_2": {
    "w": [
      -0.2083072804441113,
      -0.5920046265938204,
      -0.3172517323383542,
      0.18515976935885683,
      -0.7253298956495721,
      0.5513998021829946
    ],
    "b": -1.3464999999999072
  },
  "0_3": {
    "w": [
      -0.3727851162545739,
      -0.09298029617477122,
      -0.3134959686672082,
      -0.3751447605678217,
      -0.16123218955182536,
      0.0971521344793471
    ],
    "b": -0.8314999999999638
  },
  "0_4": {
    "w": [
      0.2451930904939826,
      -0.07897502584172111,
      0.13558875879910903,
      0.2519108454262462,
      -0.019506880492971022,
      -0.005215524827753775
    ],
    "b": -0.18050000000000013
  },
  "0_5": {
    "w": [
      0.24407324130964891,
      -0.10564821888748534,
      0.140834711724995,
      0.26102020782164426,
      -0.019627462452517775,
      -0.006712163657584416
    ],
    "b": -0.18800000000000014
  },
  "1_2": {
    "w": [
      0.6863595210257396,
      -0.13180632412866888,
      0.4820844864890685,
      0.8738161088059452,
      -0.04760797130354064,
      0.06359587587230997
    ],
    "b": -0.3045000000000002
  },
  "1_3": {
    "w": [
      -0.04673588807031954,
      -0.04603876512231558,
      0.026862356836070272,
      0.012939418662734441,
      0.032931294089442946,
      -0.020125619585226958
    ],
    "b": -1.0059999999999447
  },
  "1_4": {
    "w": [
      0.4568144695750024,
      -0.11310528963742342,
      0.29327604974610216,
      0.4604358818628987,
      0.04185609727421126,
      -0.15740327049816086
    ],
    "b": 0.21600000000000016
  },
  "1_5": {
    "w": [
      0.48563019204794766,
      -0.18834355572414158,
      0.3328735907299242,
      0.5201721267098622,
      0.04992697148482079,
      -0.08856055969475873
    ],
    "b": 0.16000000000000014
  },
  "2_3": {
    "w": [
      -0.9197242308983784,
      -0.1916140795689971,
      -0.6676825829503887,
      -1.0488254792346994,
      -0.0947128373161996,
      0.11538641426985023
    ],
    "b": -0.1695000000000001
  },
  "2_4": {
    "w": [
      0.5063922506234094,
      0.5358221298727319,
      0.42377144974506753,
      -0.06341248063116174,
      0.7858062040669961,
      -0.8932118955578587
    ],
    "b": 1.6894999999998694
  },
  "2_5": {
    "w": [
      1.2367987751366443,
      -0.8895534582508031,
      0.687833589038023,
      0.6022071039665814,
      0.5736143663005443,
      -0.8464061039098054
    ],
    "b": 2.3844999999999636
  },
  "3_4": {
    "w": [
      0.5280784371926246,
      -0.036922731253015276,
      0.2970468506076922,
      0.39593010246589266,
      0.11249181890923082,
      -0.25505813069498745
    ],
    "b": 0.8004999999999672
  },
  "3_5": {
    "w": [
      0.9293114235035858,
      -0.415915630776954,
      0.395667543227771,
      0.37190999530355656,
      0.3045852405278596,
      -0.14388878352818504
    ],
    "b": 0.7739999999999702
  },
  "4_5": {
    "w": [
      0.2207207404393129,
      -0.09457845249134027,
      0.14573239313430553,
      0.26799425602425253,
      -0.018216617400009464,
      -0.006337216204508907
    ],
    "b": -0.19300000000000014
  }
}